tree
version=v3
num_class=1
num_tree_per_iteration=1
label_index=0
max_feature_idx=19
objective=regression
feature_names=HomePlanet_Europa HomePlanet_Mars CryoSleep_True Destination_PSO_J318.5-22 Destination_TRAPPIST-1e VIP_True Side_S Deck_B Deck_C Deck_D Deck_E Deck_F Deck_G Deck_T GroupSize RoomService FoodCourt ShoppingMall VRDeck Age
feature_infos=[0:1] [0:1] [0:1] [0:1] [0:1] [0:1] [0:1] [0:1] [0:1] [0:1] [0:1] [0:1] [0:1] none [0:7] [-0.33235638760610625:12.635039717182122] [-0.28101280773723358:18.365886917492801] [-0.28294126183266388:38.813256737346379] [-0.26335653172681778:17.67082202213507] [-2.0024586600498964:3.4979656576215281]
tree_sizes=2752 2884 2886 2886 2873 2865 2886 2888 2882 2887 2897 2909 2882 2886 2891 2904 2891 2880 2894 2911

Tree=0
num_leaves=31
num_cat=0
split_feature=15 18 0 1 10 16 16 17 18 18 15 18 6 16 16 16 18 19 17 16 17 17 11 15 1 14 18 12 17 16
split_gain=162.682 120.927 42.5064 28.1896 24.4433 21.1493 15.9403 16.7917 10.7315 7.65739 7.00314 4.46328 4.4224 4.04093 3.94321 3.61 3.35725 3.31782 3.13791 3.6647 2.96304 2.7248 2.83208 2.62945 2.48412 2.40141 2.35324 2.27475 5.41862 3.80259
threshold=-0.33160123991773044 -0.26115179891876039 1.0000000180025095e-35 1.0000000180025095e-35 1.0000000180025095e-35 1.2873332513985234 0.057987616610355695 0.83542435435362583 0.81740349078290631 -0.11431659390213943 0.45375235599304037 1.3134683725958152 1.0000000180025095e-35 0.58681576935184421 -0.25818344336696231 0.97428950160891348 -0.20294685278604577 -0.5055077381519768 0.76802285516382718 -0.15810951736029391 2.6685787088613613 0.55999353667679419 1.0000000180025095e-35 0.28384412610849857 1.0000000180025095e-35 1.5000000000000002 0.91264794809098471 1.0000000180025095e-35 0.70145347324797658 -0.040209923283687693
decision_type=2 2 2 2 2 2 2 2 2 2 2 2 2 2 2 2 2 2 2 2 2 2 2 2 2 2 2 2 2 2
left_child=1 2 3 12 -5 9 7 24 13 18 20 -7 17 16 -4 -16 23 -1 19 -3 -9 22 -19 -8 -2 -21 -11 28 29 -14
right_child=6 5 14 4 -6 11 8 10 -10 26 -12 -13 27 -15 15 -17 -18 21 -20 25 -22 -23 -24 -25 -26 -27 -28 -29 -30 -31
leaf_value=0.51010593545011573 0.48954692923893556 0.48905330387116835 0.52875886730431543 0.52873436437779653 0.49976885679843031 0.51784178450671947 0.5087467121491448 0.50492345369829084 0.48273751439748414 0.49037529571947597 0.48830265676159113 0.49724879259297283 0.4931828585270388 0.51358051172130215 0.49760593545011572 0.52610593545011575 0.48745887662658627 0.50374934630282886 0.5105407180588114 0.50713296247714268 0.5220414193210835 0.5162170465612268 0.49052260211678239 0.49121704656122683 0.48455037989456018 0.48760593545011571 0.48288371322789347 0.51373115436430139 0.52177260211678234 0.51343926878344903
leaf_weight=355 805 95 631 401 89 106 103 137 57 297 61 35 65 118 20 25 34 258 46 74 31 36 48 27 360 20 162 571 42 36
leaf_count=355 805 95 631 401 89 106 103 137 57 297 61 35 65 118 20 25 34 258 46 74 31 36 48 27 360 20 162 571 42 36
internal_value=0.505375 0.511612 0.516971 0.513141 0.523473 0.495076 0.492801 0.490436 0.502525 0.491489 0.502813 0.51273 0.509553 0.506524 0.527739 0.513439 0.501447 0.50672 0.498829 0.495979 0.508082 0.503205 0.501675 0.505106 0.488003 0.502978 0.487731 0.512319 0.506679 0.500403
internal_weight=0 3412 2577 1901 490 835 1733 1394 339 694 229 141 1411 282 676 45 164 697 235 189 168 342 306 130 1165 94 459 714 143 101
internal_count=5145 3412 2577 1901 490 835 1733 1394 339 694 229 141 1411 282 676 45 164 697 235 189 168 342 306 130 1165 94 459 714 143 101
is_linear=0
shrinkage=1


Tree=1
num_leaves=31
num_cat=0
split_feature=2 12 15 18 16 16 17 10 18 16 14 17 16 0 16 6 12 16 0 18 1 18 17 15 17 3 8 18 0 17
split_gain=264.586 32.4198 29.8998 36.5613 15.8311 12.0439 13.5043 9.82281 5.97338 5.23498 9.82397 6.78394 4.90647 4.62414 4.23318 3.75007 3.65361 3.32681 3.31369 2.84989 2.69118 2.57576 2.55164 2.49798 2.47868 2.22337 1.84138 2.07445 1.81079 1.77109
threshold=1.0000000180025095e-35 1.0000000180025095e-35 0.18567492661965221 -0.13592297542110165 1.5816131400618827 1.2873332513985234 1.113351523852302 1.0000000180025095e-35 2.0273608558447926 0.13773402639691962 1.5000000000000002 0.46180369835091445 -0.2807000767184627 1.0000000180025095e-35 -0.11745448492008488 1.0000000180025095e-35 1.0000000180025095e-35 0.58681576935184421 1.0000000180025095e-35 0.95894733706018953 1.0000000180025095e-35 -0.26203369204198335 1.8888848231719613 0.045217456581764334 1.6492350482748992 1.0000000180025095e-35 1.0000000180025095e-35 0.45450447057666271 1.0000000180025095e-35 2.6685787088613613
decision_type=2 2 2 2 2 2 2 2 2 2 2 2 2 2 2 2 2 2 2 2 2 2 2 2 2 2 2 2 2 2
left_child=2 7 3 5 19 6 9 -2 26 10 11 14 16 -9 18 -3 -12 22 23 24 21 -13 25 -1 -5 -4 27 -6 -11 -8
right_child=1 15 17 4 8 -7 29 13 -10 28 12 20 -14 -15 -16 -17 -18 -19 -20 -21 -22 -23 -24 -25 -26 -27 -28 -29 -30 -31
leaf_value=-0.015956387776382194 0.022965883798478696 0.0046232416766797194 -0.018482040307576813 -0.015449778826811117 0.010720125413857974 0.015358745415233872 0.0070050455204078129 -0.0011046405826041948 -0.020293789778066718 0.0046258629835331374 0.011325854432266372 0.0070741210248052473 -0.012240129021497874 0.021999557269737124 -0.0029032130156998086 0.011300905194658085 -0.00070353611991122054 -0.0022462213650727885 0.00038838484569599758 -0.021733103472317383 -0.016115101524021316 -0.0067179088982251972 -0.0035681715968883402 0.0017488187267666773 0.0024857424944639207 -0.0080607154423540297 0.01461649069599077 -0.0098941806865775073 -0.0058866433799266817 0.017664398584100936
leaf_weight=388 890 422 737 523 26 103 140 67 23 193 113 97 52 32 113 419 143 39 38 203 23 52 33 21 20 55 51 23 52 54
leaf_count=388 890 422 737 523 26 103 140 67 23 193 113 97 52 32 113 419 143 39 38 203 23 52 33 21 20 55 51 23 52 54
internal_value=0 0.015167 -0.00851824 -0.0056989 -0.0139384 -0.00117288 -0.00232417 0.021304 0.00268163 -0.00418057 -0.00572954 -0.00888176 0.00176211 0.00636338 -0.0115494 0.00795016 0.00460631 -0.0165162 -0.0137351 -0.0166787 -0.000196447 0.0022608 -0.0171907 -0.0150473 -0.0147892 -0.0177583 0.00796598 0.00104402 0.00239464 0.00997208
internal_weight=0 1830 3315 2451 869 1582 1479 989 123 1285 1040 732 308 99 560 841 256 864 447 746 172 149 825 409 543 792 100 49 245 194
internal_count=5145 1830 3315 2451 869 1582 1479 989 123 1285 1040 732 308 99 560 841 256 864 447 746 172 149 825 409 543 792 100 49 245 194
is_linear=0
shrinkage=0.05


Tree=2
num_leaves=31
num_cat=0
split_feature=2 12 15 18 17 19 12 10 0 8 18 6 0 17 15 6 18 0 6 17 19 6 19 3 17 19 10 19 19 14
split_gain=238.789 29.2589 26.9845 32.9966 10.4964 10.9851 10.9868 8.86509 6.49078 4.89203 9.68717 4.80385 4.17329 3.87791 4.05163 3.38444 2.75 2.78496 2.23507 2.07653 1.76205 1.71708 1.97382 1.71063 1.68188 1.66939 1.63608 1.48689 3.28133 1.32369
threshold=1.0000000180025095e-35 1.0000000180025095e-35 0.18567492661965221 -0.13592297542110165 1.113351523852302 -1.1321383566208731 1.0000000180025095e-35 1.0000000180025095e-35 1.0000000180025095e-35 1.0000000180025095e-35 2.0273608558447926 1.0000000180025095e-35 1.0000000180025095e-35 0.55999353667679419 -0.31800858152696715 1.0000000180025095e-35 0.38351207415721528 1.0000000180025095e-35 1.0000000180025095e-35 1.8888848231719613 -0.5055077381519768 1.0000000180025095e-35 0.051497256042597722 1.0000000180025095e-35 2.6685787088613613 1.3047584929803908 1.0000000180025095e-35 -1.2713896051695168 -1.6891433508154479 1.5000000000000002
decision_type=2 2 2 2 2 2 2 2 2 2 2 2 2 2 2 2 2 2 2 2 2 2 2 2 2 2 2 2 2 2
left_child=2 7 3 4 5 6 -1 -2 13 16 11 -11 -9 18 -15 20 17 26 29 23 27 25 -23 -4 -6 -10 -5 28 -3 -7
right_child=1 15 19 9 24 8 -8 12 21 10 -12 -13 -14 14 -16 -17 -18 -19 -20 -21 -22 22 -24 -25 -26 -27 -28 -29 -30 -31
leaf_value=0.022047181501064772 0.021817588998695441 0.0087462995586724112 -0.016782761441985355 -0.015704889507509593 0.0067731281438617843 -0.0095729247583243669 -0.0005293679718645464 -0.0010494086502203302 0.0025765996474724313 -0.0095559052377939234 -0.021500633707491019 0.012668947418851238 0.020899578928947449 0.0056134622193809254 -0.010643109156374347 0.010735859897939005 -0.018272406476385453 -0.0036481991792336487 -0.0052869760819400351 -0.0033897630644567087 0.0011304113283111719 0.018806044558684034 0.0034770180710724423 -0.0076576789671724491 0.017015421310705797 -0.012076708846367322 -0.0043154169701867633 0.010897642942785307 -0.013236459717154503 -0.018452676106244327
leaf_weight=81 890 58 776 254 141 334 161 67 77 40 59 62 32 117 57 419 340 78 384 33 209 30 70 55 56 26 36 131 24 48
leaf_count=81 890 58 776 254 141 334 161 67 77 40 59 62 32 117 57 419 340 78 384 33 209 30 70 55 56 26 36 131 24 48
internal_value=0 0.0144087 -0.00809232 -0.00541395 -0.00111424 -0.00265025 0.00702725 0.0202388 -0.0046992 -0.0132415 -0.00537453 0.00395332 0.00604521 -0.00645018 0.000288034 0.00755265 -0.0150305 -0.0120352 -0.00798079 -0.0156903 0.00439208 0.00340875 0.00807573 -0.0161788 0.00968464 -0.00112229 -0.014291 0.0075925 0.00231232 -0.0106887
internal_weight=0 1830 3315 2451 1582 1385 242 989 1143 869 161 102 99 940 174 841 708 368 766 864 422 203 100 831 197 103 290 213 82 382
internal_count=5145 1830 3315 2451 1582 1385 242 989 1143 869 161 102 99 940 174 841 708 368 766 864 422 203 100 831 197 103 290 213 82 382
is_linear=0
shrinkage=0.05


Tree=3
num_leaves=31
num_cat=0
split_feature=2 15 18 0 11 16 16 17 14 16 18 16 0 17 17 11 0 16 16 6 16 18 6 17 17 17 4 3 10 4
split_gain=215.507 24.3535 29.7794 16.9454 18.164 13.6112 10.8314 12.0123 8.43281 6.30086 5.04404 4.29888 4.27869 4.01819 3.53457 3.18247 3.33942 3.02669 2.91264 2.73986 2.69932 2.4165 2.37482 2.19876 2.1958 2.09005 1.87136 1.8259 1.69368 1.57279
threshold=1.0000000180025095e-35 0.18567492661965221 -0.13592297542110165 1.0000000180025095e-35 1.0000000180025095e-35 1.5816131400618827 0.20841123663912917 0.83542435435362583 1.5000000000000002 -0.24942697484137885 2.0273608558447926 -0.2807000767184627 1.0000000180025095e-35 -0.28210914455871566 -0.16062002256228841 1.0000000180025095e-35 1.0000000180025095e-35 0.58681576935184421 1.2873332513985234 1.0000000180025095e-35 -0.11745448492008488 0.95894733706018953 1.0000000180025095e-35 2.6685787088613613 1.6492350482748992 1.8888848231719613 1.0000000180025095e-35 1.0000000180025095e-35 1.0000000180025095e-35 1.0000000180025095e-35
decision_type=2 2 2 2 2 2 2 2 2 2 2 2 2 2 2 2 2 2 2 2 2 2 2 2 2 2 2 2 2 2
left_child=1 2 6 4 19 21 7 8 9 12 -7 13 -1 15 20 16 29 25 22 26 -11 24 -8 -9 -4 27 -2 -3 -21 -10
right_child=3 17 5 -5 -6 10 18 23 11 14 -12 -13 -14 -15 -16 -17 -18 -19 -20 28 -22 -23 -24 -25 -26 -27 -28 -29 -30 -31
leaf_value=-0.013361154503731931 0.0081600216412267019 -0.016718800032316749 -0.014002163679718288 0.020814513996321494 0.020472288104784062 0.0076872941255569458 -0.0024362277330421821 0.0042580255315647474 0.0077921053767204297 -0.01641128013531367 -0.01828126538058986 -0.011069537807594646 0.0053335101767019791 -0.017068722397089005 0.0061614970366160073 0.017439645975828172 0.018615849264736833 -0.001294772900067843 0.014413796480998255 0.010457239471949063 -0.0026063178424481997 -0.019774567185364335 0.0088957137516084712 0.016059705273558697 0.0028789302706718443 -0.0032202751347512912 0.0015336741507053376 -0.0072747954184358768 0.00015668032521551307 -0.0034638696759939193
leaf_weight=422 172 737 523 573 332 100 82 222 45 48 23 55 33 20 84 50 29 39 103 429 135 203 106 48 20 33 280 55 44 100
leaf_count=422 172 737 523 573 332 100 82 222 45 48 23 55 33 20 84 50 29 39 103 429 135 203 106 48 20 33 280 55 44 100
internal_value=0 -0.00768771 -0.00514325 0.0136883 0.0104398 -0.0125794 -0.00105852 -0.00302276 -0.00550297 -0.00842719 0.00283138 0.0015582 -0.0120053 0.00440461 -0.0023297 0.00632187 0.00312711 -0.0149058 0.00765566 0.00683892 -0.00622729 -0.0151204 0.00395306 0.0063561 -0.0133804 -0.0155493 0.0040552 -0.016063 0.00949905 2.9364e-05
internal_weight=0 3315 2451 1830 1257 869 1582 1291 1021 722 123 299 455 244 267 224 174 864 291 925 183 746 188 270 543 825 452 792 473 145
internal_count=5145 3315 2451 1830 1257 869 1582 1291 1021 722 123 299 455 244 267 224 174 864 291 925 183 746 188 270 543 825 452 792 473 145
is_linear=0
shrinkage=0.05


Tree=4
num_leaves=31
num_cat=0
split_feature=2 12 16 19 17 18 15 12 10 16 18 19 0 18 16 18 16 6 16 7 4 10 17 17 18 18 19 18 19 6
split_gain=194.495 23.899 22.0999 27.2779 29.3317 11.7448 10.2132 9.14522 7.32405 6.1834 4.38964 3.54918 3.41742 3.22452 3.01746 2.86271 3.08636 2.74394 2.49456 2.30677 2.28192 7.37028 2.2293 2.16365 2.15674 2.03484 1.80363 1.69062 1.63562 1.6058
threshold=1.0000000180025095e-35 1.0000000180025095e-35 0.13773402639691962 -1.1321383566208731 0.60659210401788954 0.36807894450081369 -0.043134822958197379 1.0000000180025095e-35 1.0000000180025095e-35 1.0696724623340195 -0.031418640319182234 -0.64475898670062048 1.0000000180025095e-35 2.0273608558447926 2.2111406808475813 0.95894733706018953 -0.12151998816410577 1.0000000180025095e-35 -0.27069268411779585 1.0000000180025095e-35 1.0000000180025095e-35 1.0000000180025095e-35 3.0846373458354273 2.5545786423304673 -0.13592297542110165 -0.18354520407514088 0.39962537741420695 -0.24615961582397028 1.235132868706069 1.0000000180025095e-35
decision_type=2 2 2 2 2 2 2 2 2 2 2 2 2 2 2 2 2 2 2 2 2 2 2 2 2 2 2 2 2 2
left_child=2 8 3 7 15 9 10 -1 -2 11 18 -4 -10 14 -7 16 19 28 22 20 21 -5 -6 -8 -18 -13 -20 -11 -3 -29
right_child=1 17 5 4 6 13 23 -9 12 27 -12 25 -14 -15 -16 -17 24 -19 26 -21 -22 -23 -24 -25 -26 -27 -28 29 -30 -31
leaf_value=0.02025464333501863 0.019707981185631808 0.0048533349541517411 0.01229194905243668 -0.013158025681380407 0.0019993114076792924 -0.011023898186480127 -0.014130996509653625 -0.00034308887971854358 -0.0010481878892699284 0.017441925324805797 -0.013367574615404011 0.00014925524592399598 0.018813873874023557 -0.0191906269467794 0.0054565773833365671 -0.020630192374055452 -0.0050058132963266208 0.009673733635847781 0.01833774190524529 0.00025528950823677912 -0.015569871920140217 0.013231016489966163 0.019053371392545246 0.002292058803141117 -0.015624750594594587 -0.010388488194038129 0.0017911564396775289 0.0010537498429709789 -0.0069053704850375658 0.012683806977641416
leaf_weight=81 890 390 51 302 219 82 122 161 67 73 32 218 32 65 42 148 167 419 58 27 1123 29 21 24 67 58 23 51 32 71
leaf_count=81 890 390 51 302 219 82 122 161 67 73 32 218 32 65 42 148 167 419 58 27 1123 29 21 24 67 58 23 51 32 71
internal_value=0 0.0130038 -0.00730332 -0.00943655 -0.0110746 0.000509526 -0.000308575 0.00655119 0.0182729 0.00437633 0.00429177 0.00017399 0.00537187 -0.0101702 -0.0054418 -0.0139582 -0.0133825 0.00680752 0.0060522 -0.0142256 -0.0144945 -0.010846 0.00349154 -0.0114313 -0.00804628 -0.0020652 0.0136393 0.0114233 0.00396168 0.00782206
internal_weight=0 1830 3315 2604 2362 711 499 242 989 522 353 327 99 189 124 1863 1715 841 321 1481 1454 331 240 146 234 276 81 195 422 122
internal_count=5145 1830 3315 2604 2362 711 499 242 989 522 353 327 99 189 124 1863 1715 841 321 1481 1454 331 240 146 234 276 81 195 422 122
is_linear=0
shrinkage=0.05


Tree=5
num_leaves=31
num_cat=0
split_feature=2 15 18 12 16 19 16 17 12 17 16 19 18 17 11 19 16 18 16 19 7 16 15 19 16 4 0 11 9 14
split_gain=175.117 22.5318 21.7002 21.6364 12.2165 7.47783 11.7999 21.9976 7.2126 3.76358 3.71506 3.63791 3.24474 2.93937 2.46083 2.35291 2.334 2.0973 1.75409 1.73469 1.67725 1.63043 1.23218 1.37367 2.21364 1.21423 1.13899 5.68873 2.11801 1.12797
threshold=1.0000000180025095e-35 0.13508003149847755 -0.09535589175284602 1.0000000180025095e-35 1.5816131400618827 -1.1321383566208731 0.13773402639691962 0.46180369835091445 1.0000000180025095e-35 1.8414541385569179 -0.066792059879208984 1.8617634871749655 3.0410970009895721 1.6492350482748992 1.0000000180025095e-35 0.95663037160878162 0.58681576935184421 1.2133735031100106 -0.26693991189254579 -1.8980202236384134 1.0000000180025095e-35 0.47485806463188385 -0.20473642827060598 -0.64475898670062048 1.0696724623340195 1.0000000180025095e-35 1.0000000180025095e-35 1.0000000180025095e-35 1.0000000180025095e-35 5.5000000000000009
decision_type=2 2 2 2 2 2 2 2 2 2 2 2 2 2 2 2 2 2 2 2 2 2 2 2 2 2 2 2 2 2
left_child=1 2 5 26 17 8 7 10 -1 16 20 22 -6 18 -11 25 -3 21 -9 -10 -7 -4 23 -8 -25 -5 27 28 -2 -27
right_child=3 9 4 15 12 6 11 13 19 14 -12 -13 -14 -15 -16 -17 -18 -19 -20 -21 -22 -23 -24 24 -26 29 -28 -29 -30 -31
leaf_value=0.019233671147376299 0.00033429015270421201 -0.014982695510979803 -0.01308041278445771 0.0097447961471119875 0.0081215111781721538 -0.013775350623190527 0.012661337410962141 -0.00088675622180972927 0.0097076699484226325 0.012461933764544401 -0.002993793129374128 -0.0127427668483169 -0.013660376057738351 0.01135869539275612 -0.011771192997694017 -0.0016005849874601132 -0.0024610263032790944 -0.018702215096860562 0.0079526159365971884 -0.0019113417333505287 0.0010033693164587022 -0.0038334353071338731 0.015819536437911372 0.00015015590865657014 0.0093759704313494951 0.0063230260581146058 0.018867444877240371 0.018586844645486857 0.017792709495710293 -0.003724884341160457
leaf_weight=80 71 813 474 305 92 479 54 223 43 22 109 27 21 97 20 82 39 159 75 127 20 53 31 159 110 405 571 322 23 30
leaf_count=80 71 813 474 305 92 479 54 223 43 22 109 27 21 97 20 82 39 159 75 127 20 53 31 159 110 405 571 322 23 30
internal_value=0 -0.0069012 -0.00440695 0.0124274 -0.0111597 -0.00110494 -0.00254253 -0.00538799 0.00685353 -0.0136892 -0.0113563 0.00494828 0.00407355 0.00379872 0.00092235 0.00643552 -0.0144095 -0.013669 0.00133792 0.00102758 -0.013183 -0.0121505 0.0062976 0.00538373 0.00392279 0.007326 0.0174177 0.0154277 0.00460603 0.00563007
internal_weight=0 3327 2433 1809 799 1634 1384 1003 250 894 608 381 113 395 42 822 852 686 298 170 499 527 354 323 269 740 987 416 94 435
internal_count=5136 3327 2433 1809 799 1634 1384 1003 250 894 608 381 113 395 42 822 852 686 298 170 499 527 354 323 269 740 987 416 94 435
is_linear=0
shrinkage=0.05


Tree=6
num_leaves=31
num_cat=0
split_feature=2 15 18 12 16 16 10 14 18 0 6 18 1 6 16 18 6 8 16 4 15 14 6 16 15 15 15 0 18 16
split_gain=158.043 20.335 19.5844 19.5269 11.0254 6.57214 5.72295 3.91202 2.92838 2.88845 2.44143 2.06681 2.24559 2.04916 1.89577 1.89281 2.14946 2.08216 1.70527 1.67291 1.55073 1.25518 1.23944 2.24149 1.24001 1.1826 1.1308 1.07726 1.06462 1.05079
threshold=1.0000000180025095e-35 0.13508003149847755 -0.09535589175284602 1.0000000180025095e-35 1.5816131400618827 0.13773402639691962 1.0000000180025095e-35 1.5000000000000002 3.0410970009895721 1.0000000180025095e-35 1.0000000180025095e-35 -0.26203369204198335 1.0000000180025095e-35 1.0000000180025095e-35 0.7097190597287838 1.2133735031100106 1.0000000180025095e-35 1.0000000180025095e-35 0.58681576935184421 1.0000000180025095e-35 -0.20473642827060598 4.5000000000000009 1.0000000180025095e-35 -0.066792059879208984 -0.13526284094003779 -0.026521573813931078 -0.32556005841072455 1.0000000180025095e-35 -0.25674233330264562 -0.27882369060583767
decision_type=2 2 2 2 2 2 2 2 2 2 2 2 2 2 2 2 2 2 2 2 2 2 2 2 2 2 2 2 2 2
left_child=1 2 5 6 15 7 -2 22 -6 -8 14 12 29 19 -7 16 -4 -18 -3 -5 -12 -21 24 27 -1 -26 -25 -24 -16 -9
right_child=3 18 4 13 8 10 9 11 -10 -11 20 -13 -14 -15 28 -17 17 -19 -20 21 -22 -23 23 26 25 -27 -28 -29 -30 -31
leaf_value=-0.0073550502371847936 0.017846400637971868 -0.013477375520615724 -0.014496678470725744 0.0074647171579929721 0.007715435585250026 -0.0049605497169768684 -0.00061424753683454855 0.0022066888734698295 -0.01297735713777088 0.017063736830438887 0.0067606873924915606 -0.0067692775030930843 0.011453646932964896 0.0085920291750327411 0.011767134188037169 -0.017767104412774622 -0.0095510978571969468 0.0065784520723602986 -0.0029146356880664828 0.0020281398685665819 0.02076429006728259 -0.011049785837531091 -0.0045729811295906492 0.013393356502056123 0.0075894943599043229 -0.0072499172091484076 -0.0015309003943746742 0.0070626830061276749 7.6474287571051183e-06 -0.008865433931350709
leaf_weight=398 884 854 284 166 92 87 68 200 21 35 195 60 67 414 38 159 221 22 40 222 22 20 377 30 29 25 22 21 39 24
leaf_count=398 884 854 284 166 92 87 68 200 21 35 195 60 67 414 38 159 221 22 40 222 22 20 377 30 29 25 22 21 39 24
internal_value=0 -0.00655614 -0.0041866 0.0118061 -0.0106017 -0.0010497 0.0165468 -0.00279827 0.00386987 0.00539283 0.00470087 0.00168036 0.00342255 0.00611374 9.68386e-05 -0.0129856 -0.0115429 -0.00809081 -0.0130048 0.00359901 0.00818041 0.00094732 -0.00454106 -0.0026835 -0.0063904 0.000719396 0.00707925 -0.00395904 0.00581103 0.00102039
internal_weight=0 3327 2433 1809 799 1634 987 1253 113 103 381 351 291 822 164 686 527 243 894 408 217 242 902 450 452 54 52 398 77 224
internal_count=5136 3327 2433 1809 799 1634 987 1253 113 103 381 351 291 822 164 686 527 243 894 408 217 242 902 450 452 54 52 398 77 224
is_linear=0
shrinkage=0.05


Tree=7
num_leaves=31
num_cat=0
split_feature=2 15 18 12 16 17 16 14 17 10 17 18 0 18 16 11 16 1 18 14 18 16 0 4 14 16 16 0 15 15
split_gain=142.634 18.3523 17.6749 17.623 9.95045 6.86682 7.16488 5.20741 7.98814 5.16496 3.40205 2.64286 2.60683 2.37867 2.22332 2.21627 1.92354 1.78589 1.70826 1.5501 2.23636 1.40535 1.17005 1.18123 1.07141 0.971954 0.957286 1.69771 1.31452 0.943126
threshold=1.0000000180025095e-35 0.13508003149847755 -0.09535589175284602 1.0000000180025095e-35 1.5816131400618827 1.6492350482748992 0.13773402639691962 1.5000000000000002 0.46180369835091445 1.0000000180025095e-35 1.8414541385569179 3.0410970009895721 1.0000000180025095e-35 -0.26203369204198335 -0.066792059879208984 1.0000000180025095e-35 0.58681576935184421 1.0000000180025095e-35 1.2133735031100106 1.0000000180025095e-35 -0.26115179891876039 0.47485806463188385 1.0000000180025095e-35 1.0000000180025095e-35 5.5000000000000009 -0.23066311371512851 1.2873332513985234 1.0000000180025095e-35 -0.29082326474544046 -0.32707035378747601
decision_type=2 2 2 2 2 2 2 2 2 2 2 2 2 2 2 2 2 2 2 2 2 2 2 2 2 2 2 2 2 2
left_child=1 2 5 9 18 6 7 8 14 -2 16 29 -11 17 19 -12 -3 22 21 -1 -21 -4 23 -9 -5 -10 27 28 -8 -6
right_child=3 10 4 24 11 -7 26 13 25 12 15 -13 -14 -15 -16 -17 -18 -19 -20 20 -22 -23 -24 -25 -26 -27 -28 -29 -30 -31
leaf_value=-0.012288255335053028 0.016954080381207336 -0.013559692044173073 -0.011829169842764296 0.0062674509178017096 0.010337209329009056 0.011009120108845 0.0025913720684392111 0.0054885865028562221 7.7389492229981859e-05 -0.00058353451244971333 0.012488699298013342 -0.012328489408606575 0.016210549984659466 -0.0078970830168640406 -0.0025476732701063161 -0.010508765056729317 -0.0021922435898047228 0.010571469229001266 -0.016878748764781831 -0.0012109942056915978 -0.019286950406703085 -0.0032441634895666593 0.0099428003188222654 -0.0031341768446422761 -0.0012850462496280671 0.0088362416302835613 0.0081688146900247647 -0.0048070260882377633 0.012305718693468306 -0.0011917152752478918
leaf_weight=362 884 813 474 772 68 111 154 58 220 68 22 21 35 57 100 20 39 65 159 77 22 53 32 126 50 37 108 60 45 24
leaf_count=362 884 813 474 772 68 111 154 58 220 68 22 21 35 57 100 20 39 65 159 77 22 53 32 126 50 37 108 60 45 24
internal_value=0 -0.00622833 -0.00397727 0.0112158 -0.0100717 -0.000997212 -0.00187226 -0.00380458 -0.00596175 0.0157194 -0.0123545 0.00367638 0.00512319 0.00141602 -0.00930602 0.00153753 -0.0130394 0.00330515 -0.0123363 -0.010772 -0.00522787 -0.0109658 0.00111852 -0.000416132 0.00580805 0.00133839 0.00421428 0.00256528 0.00478808 0.00732966
internal_weight=0 3327 2433 1809 799 1634 1523 1156 818 987 894 113 103 338 561 42 852 281 686 461 99 527 216 184 822 257 367 259 199 92
internal_count=5136 3327 2433 1809 799 1634 1523 1156 818 987 894 113 103 338 561 42 852 281 686 461 99 527 216 184 822 257 367 259 199 92
is_linear=0
shrinkage=0.05


Tree=8
num_leaves=31
num_cat=0
split_feature=2 15 18 12 16 19 17 16 19 12 10 6 17 17 19 18 11 6 8 16 18 16 16 6 16 19 18 19 17 16
split_gain=128.727 16.563 15.9516 15.9048 9.05274 6.32008 7.78178 11.7385 10.54 5.02398 4.66138 3.92545 3.07035 2.26783 2.12323 2.11239 2.00019 1.79551 1.81709 3.27242 2.26074 1.736 1.72496 1.67872 1.66876 2.47282 1.65251 1.54868 1.37481 1.79566
threshold=1.0000000180025095e-35 0.13508003149847755 -0.09535589175284602 1.0000000180025095e-35 1.8746421046501587 -1.8980202236384134 0.55999353667679419 1.0000000180025095e-35 -1.1321383566208731 1.0000000180025095e-35 1.0000000180025095e-35 1.0000000180025095e-35 1.8414541385569179 1.6492350482748992 1.0958816201574253 2.0273608558447926 1.0000000180025095e-35 1.0000000180025095e-35 1.0000000180025095e-35 0.13773402639691962 0.51006373733970856 0.58681576935184421 -0.26693991189254579 1.0000000180025095e-35 0.7097190597287838 -0.64475898670062048 -0.25674233330264562 0.12112288031691955 -0.20555435535548755 -0.23754319612808697
decision_type=2 2 2 2 2 2 2 2 2 2 2 2 2 2 2 2 2 2 2 2 2 2 2 2 2 2 2 2 2 2
left_child=1 2 5 10 17 -1 7 8 9 -7 -2 24 21 22 -5 -6 -14 -4 20 -20 -19 -3 -8 -10 25 -9 -26 -24 -25 -30
right_child=3 12 4 14 15 6 13 11 23 -11 -12 -13 16 -15 -16 -17 -18 18 19 -21 -22 -23 27 28 26 -27 -28 -29 29 -31
leaf_value=0.012848765619947942 0.01610637568948765 -0.012881707357011305 -0.013955477770903838 0.0062929558448810534 0.0088630694795299222 0.017867902971126819 -0.00040246187913708567 0.0082862839102745053 -0.013612084197146553 -0.0017369546524183021 0.0048670334868060735 0.0072272664525060582 0.011864263632080773 0.010458664112799877 -0.0028113444149494172 -0.0084854788754297333 -0.0099833264946937571 -0.0070316411086491174 -0.014784070590268011 0.010107765034321816 -0.016311903141793753 -0.0020826315268492089 0.013378909746041666 -0.010542551658228431 0.011467507737023491 -0.0092776010384654061 -0.0043850598796721435 -0.0010419961707345371 -0.008040928517778715 0.0069409925738970445
leaf_weight=79 884 813 368 752 74 44 205 25 280 127 103 234 22 111 70 23 20 175 23 31 105 39 52 191 35 101 31 29 60 30
leaf_count=79 884 813 368 752 74 44 205 25 280 127 103 234 22 111 70 23 20 175 23 31 105 39 52 191 35 101 31 29 60 30
internal_value=0 -0.00591691 -0.00377841 0.010655 -0.00956808 -0.000947351 -0.00164825 -0.00371927 -0.00755962 0.00330757 0.0149335 0.00287964 -0.0117368 0.00439268 0.00551765 0.0047495 0.00146065 -0.0115464 -0.00889216 -0.000494313 -0.0105117 -0.0123874 0.00203839 -0.0108721 -0.00241903 -0.0057927 0.0040216 0.00821587 -0.00814183 -0.00304695
internal_weight=0 3327 2433 1809 799 1634 1555 1158 732 171 987 426 894 397 822 97 42 702 334 54 280 852 286 561 192 126 66 81 281 90
internal_count=5136 3327 2433 1809 799 1634 1555 1158 732 171 987 426 894 397 822 97 42 702 334 54 280 852 286 561 192 126 66 81 281 90
is_linear=0
shrinkage=0.05


Tree=9
num_leaves=31
num_cat=0
split_feature=2 15 12 19 17 16 6 12 17 8 17 6 0 17 19 19 16 11 16 16 16 4 15 19 11 6 4 19 19 19
split_gain=116.176 14.9481 14.354 10.2628 13.2897 20.432 5.67605 5.42712 2.77099 2.32389 2.16166 2.11652 1.95846 1.95385 1.93095 1.88303 2.20518 1.80517 1.7144 1.58566 1.56674 1.43466 2.12453 1.3607 1.27482 1.2724 1.71519 1.30061 1.19467 0.995446
threshold=1.0000000180025095e-35 0.13508003149847755 1.0000000180025095e-35 -1.1321383566208731 0.55999353667679419 0.057987616610355695 1.0000000180025095e-35 1.0000000180025095e-35 1.8414541385569179 1.0000000180025095e-35 1.6492350482748992 1.0000000180025095e-35 1.0000000180025095e-35 -0.19723318261600623 0.95663037160878162 -0.64475898670062048 1.2873332513985234 1.0000000180025095e-35 -0.12151998816410577 2.0031745533649739 0.58681576935184421 1.0000000180025095e-35 -0.33009094454097898 -1.8980202236384134 1.0000000180025095e-35 1.0000000180025095e-35 1.0000000180025095e-35 -1.8283945993640915 0.1907485045912414 0.46925100168852879
decision_type=2 2 2 2 2 2 2 2 2 2 2 2 2 2 2 2 2 2 2 2 2 2 2 2 2 2 2 2 2 2
left_child=1 3 -2 7 5 11 15 -1 20 12 21 -5 -8 -13 25 -7 -17 -10 -15 -14 -3 24 -23 -9 -6 26 -4 -27 -11 -21
right_child=2 8 14 4 10 6 9 23 17 28 -12 13 19 18 -16 16 -18 -19 -20 29 -22 22 -24 -25 -26 27 -28 -29 -30 -31
leaf_value=0.016745469346642495 0.014186802320748476 -0.012237622272704361 0.0079911981824955913 -0.013121452728188708 0.012981204963044116 0.0060487035342625213 0.0058989080711730618 0.0086404802494270874 0.01127105097879063 0.019390772935003044 0.0081295299897159359 -0.010450923644627136 -0.0072458913549780851 -0.0060235549115909724 -0.0020381792471176239 -0.0096260926282474776 -7.9063157881459898e-05 -0.0094841601699590695 0.0090357191536737519 0.011387029945850374 -0.0019784997288997356 0.0028762524947524072 -0.0067705547057309206 -0.0016501070594224405 0.00077825933694839486 0.016867197932381377 0.0010516504656540957 0.0071079035600026446 0.0070187460482120517 -0.003195955401117152
leaf_weight=80 987 813 153 553 38 35 159 43 22 32 138 384 72 106 82 173 93 20 23 25 39 128 103 127 49 38 213 336 50 22
leaf_count=80 987 813 153 553 38 35 159 43 22 32 138 384 72 106 82 173 93 20 23 25 39 128 103 127 49 38 213 336 50 22
internal_value=0 -0.00562107 0.0101222 -0.00358949 -0.00468843 -0.00669307 0.000213414 0.00600646 -0.01115 0.00445008 0.0029037 -0.0109756 0.0022683 -0.00866244 0.00524177 -0.0048537 -0.00628822 0.00138762 -0.00333857 -0.00258268 -0.011768 0.000635892 -0.00142514 0.000952806 0.00610828 0.00604846 0.00395261 0.00809949 0.0118469 0.00456095
internal_weight=0 3327 1809 2433 2183 1727 661 250 894 360 456 1066 278 513 822 301 266 42 129 119 852 318 231 170 87 740 366 374 82 47
internal_count=5136 3327 1809 2433 2183 1727 661 250 894 360 456 1066 278 513 822 301 266 42 129 119 852 318 231 170 87 740 366 374 82 47
is_linear=0
shrinkage=0.05


Tree=10
num_leaves=31
num_cat=0
split_feature=2 12 19 16 17 18 12 10 15 18 19 18 16 18 19 18 4 10 7 0 16 17 19 19 17 19 19 6 6 16
split_gain=105.105 13.6898 12.7772 16.2556 16.1877 6.91814 5.79197 5.24277 4.08045 3.52265 3.39059 2.92149 3.03225 3.08307 2.38176 2.26321 2.90403 5.44569 2.4808 2.25744 1.97718 2.57174 1.96986 1.80516 1.74458 1.6711 1.62479 1.46793 1.41383 1.55279
threshold=1.0000000180025095e-35 1.0000000180025095e-35 -1.1321383566208731 0.13773402639691962 0.68980383141270274 2.0273608558447926 1.0000000180025095e-35 1.0000000180025095e-35 -0.040114232204694421 -0.031418640319182234 1.652886614352 0.36807894450081369 0.55366628136213525 -0.18530899032158679 1.0958816201574253 0.91264794809098471 1.0000000180025095e-35 1.0000000180025095e-35 1.0000000180025095e-35 1.0000000180025095e-35 -0.24629966465367045 0.34530727999817595 -0.57513336242629864 0.26037412886556327 1.8888848231719613 0.7477534987858161 -0.57513336242629864 1.0000000180025095e-35 1.0000000180025095e-35 -0.13121464974600175
decision_type=2 2 2 2 2 2 2 2 2 2 2 2 2 2 2 2 2 2 2 2 2 2 2 2 2 2 2 2 2 2
left_child=2 7 6 4 15 10 -1 -2 9 24 11 12 13 22 -3 16 17 28 20 -9 -18 -22 -5 -14 26 -25 -6 -24 -4 -30
right_child=1 14 3 5 8 -7 -8 19 -10 -11 -12 -13 23 -15 -16 -17 18 -19 -20 -21 21 -23 27 25 -26 -27 -28 -29 29 -31
leaf_value=0.016382743867046863 0.014665860554437762 0.0055526306278612545 -0.011081610755486922 0.012098328603638544 0.010177370933991559 -0.014603517215016862 8.7785945748383146e-05 -0.0017775646448135376 -0.0077680275837580361 -0.013092078220459722 -0.0091224853415042169 -0.004379520375620235 0.012713950896849397 -0.012638434924577413 -0.0040949990281036923 -0.016275419888866917 -0.01235359500741335 0.013059762427035502 0.004056578874588013 0.014262999546143316 -0.0091945930805108333 0.0069343495148199586 -0.0063883369719540638 -0.0014117629690603777 0.011340738587999999 0.0093670086581495744 0.00021706262396441569 0.0041298319087472073 -0.0069122256783695967 0.0051922760903835297
leaf_weight=83 906 743 176 45 53 71 159 75 120 31 64 110 122 38 70 148 994 34 27 31 292 27 54 66 73 79 180 86 154 32
leaf_count=83 906 743 176 45 53 71 159 75 120 31 64 110 122 38 70 148 994 34 27 31 292 27 54 66 73 79 180 86 154 32
internal_value=0 0.00955346 -0.00538549 -0.00625578 -0.00829245 0.000231079 0.00567655 0.0134349 0.000149514 0.00296882 0.00181731 0.00298422 0.0046373 0.000333451 0.00472196 -0.0103402 -0.00983422 -0.00607238 -0.0109459 0.00291354 -0.0112544 -0.00782945 0.00299795 0.00823191 0.0045959 0.00446081 0.00248271 7.28239e-05 -0.00786932 -0.00482973
internal_weight=0 1825 3318 3076 2341 735 242 1012 457 337 664 600 490 223 813 1884 1736 396 1340 106 1313 319 185 267 306 145 233 140 362 186
internal_count=5143 1825 3318 3076 2341 735 242 1012 457 337 664 600 490 223 813 1884 1736 396 1340 106 1313 319 185 267 306 145 233 140 362 186
is_linear=0
shrinkage=0.05


Tree=11
num_leaves=31
num_cat=0
split_feature=2 12 15 18 16 17 16 10 18 14 17 6 8 16 6 1 3 18 15 6 14 16 14 6 17 18 6 10 4 16
split_gain=94.8572 12.355 10.9329 12.4844 8.22009 4.97758 5.1753 4.7316 4.44382 3.43854 4.34712 2.03637 2.92333 1.98212 1.96521 1.95545 1.92014 1.86374 1.65565 1.45742 1.6705 1.42603 1.83665 1.57407 1.28346 1.19411 1.40737 1.37823 1.18346 1.07479
threshold=1.0000000180025095e-35 1.0000000180025095e-35 0.18567492661965221 -0.15267894476233768 0.47485806463188385 1.8888848231719613 0.13773402639691962 1.0000000180025095e-35 3.3427044491318205 1.5000000000000002 0.46180369835091445 1.0000000180025095e-35 1.0000000180025095e-35 -0.23066311371512851 1.0000000180025095e-35 1.0000000180025095e-35 1.0000000180025095e-35 0.38351207415721528 -0.32253946765722158 1.0000000180025095e-35 2.5000000000000004 -0.072421218217084082 1.0000000180025095e-35 1.0000000180025095e-35 1.8414541385569179 0.95894733706018953 1.0000000180025095e-35 1.0000000180025095e-35 1.0000000180025095e-35 2.8591193517407594
decision_type=2 2 2 2 2 2 2 2 2 2 2 2 2 2 2 2 2 2 2 2 2 2 2 2 2 2 2 2 2 2
left_child=2 7 3 5 25 6 9 -2 11 10 21 29 17 -12 18 -9 24 -13 -11 20 28 22 -1 -23 -4 26 -5 -28 -3 -6
right_child=1 19 16 4 8 -7 -8 15 -10 14 13 12 -14 -15 -16 -17 -18 -19 -20 -21 -22 23 -24 -25 -26 -27 27 -29 -30 -31
leaf_value=-0.010382643715646064 0.013932566986178722 0.006965656493120133 -0.010962276200938655 -0.012278738673291685 -0.0063697606088623168 0.010965626912061559 0.0039752533458412218 0.011318628380938275 -0.017015462888009619 -0.00079604350770546119 -0.0015198265130703268 0.0082164214458316561 0.015898214767758663 0.010100960189645942 0.0050275696618925962 -0.0026256914322192854 -0.00055043548345565794 -0.0091305308043956764 -0.016105131283402446 0.0066636079549789425 -0.0053690416075415533 -0.0081861253380775458 -0.0025484914425760508 0.004490100623418888 -0.00089469177253318562 -0.014827469654621617 -0.0084750269484870581 0.0028403610952438848 0.0011784505578550963 0.0066917163275537041
leaf_weight=339 906 157 778 269 63 86 343 41 33 151 221 32 52 44 168 65 51 30 20 395 59 50 96 48 33 155 204 31 202 21
leaf_count=339 906 157 778 269 63 86 343 41 33 151 221 32 52 44 168 65 51 30 20 395 59 50 96 48 33 155 204 31 202 21
internal_value=0 0.00907578 -0.00511622 -0.00341587 -0.00814456 -0.000728423 -0.00140794 0.0127631 -2.84087e-05 -0.0030319 -0.00482405 0.00280277 0.00715541 0.000409663 0.0011868 0.00276787 -0.00996084 -0.000177265 -0.00258658 0.00448586 0.00242795 -0.00742618 -0.00865373 -0.00197736 -0.0105526 -0.0109895 -0.0098092 -0.00698236 0.00370935 -0.00310439
internal_weight=0 1825 3318 2456 890 1566 1480 1012 231 1137 798 198 114 265 339 106 862 62 171 813 418 533 435 98 811 659 504 235 359 84
internal_count=5143 1825 3318 2456 890 1566 1480 1012 231 1137 798 198 114 265 339 106 862 62 171 813 418 533 435 98 811 659 504 235 359 84
is_linear=0
shrinkage=0.05


Tree=12
num_leaves=31
num_cat=0
split_feature=2 12 19 16 17 18 12 10 15 19 6 18 8 18 19 18 6 16 1 17 18 1 16 19 19 17 18 17 16 19
split_gain=85.6086 11.1504 10.8681 13.4055 13.4919 5.69768 5.17464 4.27027 3.47672 3.06808 2.60444 2.59402 2.43158 2.86696 2.15705 2.06742 1.94412 2.36343 1.76479 1.73316 1.71482 1.70117 1.61057 2.69396 1.59565 1.56822 1.56538 1.54503 1.5389 1.39055
threshold=1.0000000180025095e-35 1.0000000180025095e-35 -1.1321383566208731 0.13773402639691962 0.68980383141270274 2.0273608558447926 1.0000000180025095e-35 1.0000000180025095e-35 -0.19718495138684858 1.652886614352 1.0000000180025095e-35 -0.031418640319182234 1.0000000180025095e-35 0.27062975438467779 1.0958816201574253 -0.014221724416334732 1.0000000180025095e-35 -0.069293908029375698 1.0000000180025095e-35 1.8414541385569179 0.48140221083496265 1.0000000180025095e-35 0.97428950160891348 -0.57513336242629864 -0.57513336242629864 0.21216851616647481 0.91264794809098471 1.5785050799893081 -0.2807000767184627 -1.9676458479127352
decision_type=2 2 2 2 2 2 2 2 2 2 2 2 2 2 2 2 2 2 2 2 2 2 2 2 2 2 2 2 2 2
left_child=2 7 6 4 16 9 -1 -2 11 10 15 24 13 -12 -3 22 25 21 -9 -10 -19 26 23 -5 28 -4 -18 -26 -6 -8
right_child=1 14 3 5 8 -7 29 18 19 -11 12 -13 -14 -15 -16 -17 17 20 -20 -21 -22 -23 -24 -25 27 -27 -28 -29 -30 -31
leaf_value=0.015461342683039517 0.013235939165811665 0.0050520837066311535 -0.011695992978366876 0.012165705859661103 0.0045563485976812005 -0.013234875109833731 0.0093744120560586459 0.010752697179957135 -0.0093276684027199363 -0.0087392181856557737 0.005497613312168555 -0.011177244569574085 0.01360339214535136 -0.010103193056934022 -0.0041291674332959317 -0.007000904161851485 -0.0067597024154936241 0.0028584132654757444 -0.0024944062874867369 0.0022457739905170772 -0.013531171232461931 -0.0133126070450066 0.0078399552106857302 -0.0064186887481273757 -5.4137398865049252e-06 -0.0053235441036180615 -0.015037590430842507 0.0097827623107216571 0.019658811101990362 -0.0022878944991141792
leaf_weight=83 906 743 845 26 37 71 32 41 109 64 220 28 76 34 70 91 611 79 65 46 20 157 75 78 151 109 63 55 31 127
leaf_count=83 906 743 845 26 37 71 32 41 109 64 220 28 76 34 70 91 611 79 65 46 20 157 75 78 151 109 63 55 31 127
internal_value=0 0.008622 -0.00486041 -0.00566305 -0.00751258 0.000227759 0.00534178 0.012125 0.000194463 0.00166729 0.00277732 0.00331881 0.00575704 0.00340932 0.00426157 -0.000864574 -0.00938207 -0.00775531 0.00262947 -0.00589297 -0.000452614 -0.0086253 0.00225501 -0.00177259 0.00480016 -0.0109679 -0.00753345 0.00260793 0.0114413 5.92364e-05
internal_weight=0 1825 3318 3076 2341 735 242 1012 457 664 600 302 330 254 813 270 1884 930 106 155 99 831 179 104 274 954 674 206 68 159
internal_count=5143 1825 3318 3076 2341 735 242 1012 457 664 600 302 330 254 813 270 1884 930 106 155 99 831 179 104 274 954 674 206 68 159
is_linear=0
shrinkage=0.05


Tree=13
num_leaves=31
num_cat=0
split_feature=2 12 19 16 17 18 12 10 15 19 18 16 18 18 19 17 0 18 1 19 19 19 17 16 17 10 16 15 19 16
split_gain=77.2617 10.0632 9.80842 12.0984 12.1764 5.14215 4.67011 3.85392 3.19197 2.76894 2.24336 2.51667 2.55701 2.11226 1.94674 1.77951 1.73445 1.72554 2.08066 1.64902 1.60928 1.47961 1.47674 1.71943 2.50273 1.97567 1.39593 1.38666 1.45034 1.59852
threshold=1.0000000180025095e-35 1.0000000180025095e-35 -1.1321383566208731 0.13773402639691962 0.68980383141270274 2.0273608558447926 1.0000000180025095e-35 1.0000000180025095e-35 0.53077742020736596 1.652886614352 0.36807894450081369 0.55366628136213525 -0.18530899032158679 -0.031418640319182234 1.0958816201574253 3.0846373458354273 1.0000000180025095e-35 0.91264794809098471 1.0000000180025095e-35 -0.57513336242629864 0.26037412886556327 0.7477534987858161 -0.16062002256228841 -0.24129596835333703 0.2945481262873399 1.0000000180025095e-35 -0.14810212475962706 -0.19718495138684858 -0.57513336242629864 -0.2807000767184627
decision_type=2 2 2 2 2 2 2 2 2 2 2 2 2 2 2 2 2 2 2 2 2 2 2 2 2 2 2 2 2 2
left_child=2 7 6 4 17 9 -1 -2 13 10 11 12 19 15 -3 27 -9 18 22 -5 -13 -22 -4 25 26 -24 -25 28 29 -6
right_child=1 14 3 5 8 -7 -8 16 -10 -11 -12 20 -14 -15 -16 -17 -18 -19 -20 -21 21 -23 23 24 -26 -27 -28 -29 -30 -31
leaf_value=0.014688275628779307 0.012574142281780179 0.0047994792862503244 -0.0084644374257004714 0.010919024811850656 0.0027643537431052238 -0.012573131499156147 5.6274956877126644e-05 -0.0016139581203460695 -0.010462172134000747 -0.008302257233299316 -0.0038143170963634144 0.01159369956518783 -0.011647376300472963 -0.0097229337112771149 -0.0039227095246315005 0.013691702101911819 0.012446282755944038 -0.014095421477749543 -0.011808590578806143 -8.3668817366872522e-05 -0.0017247060934702557 0.0084177422561223011 -0.0089179993561796234 -0.015453382175077092 0.010959284909461674 0.0058016089292672966 0.00022699121385812761 -0.0039372867421258858 0.001448185515144597 0.018854837941712346
leaf_weight=83 906 743 1057 45 33 71 159 75 61 64 110 122 38 36 70 35 31 148 368 140 66 79 185 22 38 26 40 79 184 29
leaf_count=83 906 743 1057 45 33 71 159 75 61 64 110 122 38 36 70 35 31 148 368 140 66 79 185 22 38 26 40 79 184 29
internal_value=0 0.0081909 -0.00461739 -0.0053799 -0.00713695 0.000216371 0.00507469 0.0115187 0.000184739 0.00158392 0.00263845 0.00408703 0.000166108 0.00182479 0.00404849 0.00297957 0.002498 -0.00891296 -0.00847114 0.00259266 0.00736181 0.00380118 -0.00757335 -0.00454479 0.000855581 -0.00710421 -0.00533701 0.00182595 0.00367675 0.0102905
internal_weight=0 1825 3318 3076 2341 735 242 1012 457 664 600 490 223 396 813 360 106 1884 1736 185 267 145 1368 311 100 211 62 325 246 62
internal_count=5143 1825 3318 3076 2341 735 242 1012 457 664 600 490 223 396 813 360 106 1884 1736 185 267 145 1368 311 100 211 62 325 246 62
is_linear=0
shrinkage=0.05


Tree=14
num_leaves=31
num_cat=0
split_feature=2 12 19 16 17 18 12 10 15 6 8 18 16 18 18 4 10 19 18 17 19 0 19 1 6 15 19 16 16 19
split_gain=69.7287 9.08207 8.86671 10.7016 10.7083 4.68281 3.49708 3.47816 2.88075 2.75788 3.32361 2.89493 2.21719 3.18103 1.90632 1.80151 3.63439 1.75693 1.65583 1.606 1.5748 1.56534 1.53695 1.36005 1.51649 1.25146 1.30894 1.44267 1.24095 2.24942
threshold=1.0000000180025095e-35 1.0000000180025095e-35 -1.2713896051695168 0.13773402639691962 0.68980383141270274 3.3427044491318205 1.0000000180025095e-35 1.0000000180025095e-35 0.53077742020736596 1.0000000180025095e-35 1.0000000180025095e-35 0.27062975438467779 4.016849583230405 -0.014221724416334732 -0.031418640319182234 1.0000000180025095e-35 1.0000000180025095e-35 1.0958816201574253 0.037809969853819257 3.0846373458354273 1.3743841172547127 1.0000000180025095e-35 1.5832609900776782 1.0000000180025095e-35 1.0000000180025095e-35 -0.19718495138684858 -0.57513336242629864 -0.2807000767184627 0.97428950160891348 -0.57513336242629864
decision_type=2 2 2 2 2 2 2 2 2 2 2 2 2 2 2 2 2 2 2 2 2 2 2 2 2 2 2 2 2 2
left_child=2 7 6 4 15 9 -1 -2 14 12 11 20 13 22 19 16 18 -3 -4 25 -11 -9 28 24 -17 26 27 -6 29 -5
right_child=1 17 3 5 8 -7 -8 21 -10 10 -12 -13 -14 -15 -16 23 -18 -19 -20 -21 -22 -23 -24 -25 -26 -27 -28 -29 -30 -31
leaf_value=0.013897287807403466 0.011945435003465902 0.0045595056315931625 -0.0047821269924106131 0.011093073109021554 0.002626136216250333 -0.014893072812507549 0.00061683984582915031 -0.0015332596103350322 -0.0099390634259239573 0.0052708771534082368 0.012415707564872244 -0.010155630674627093 0.011505973725407213 -0.010848214715411983 -0.0092367871354023627 -0.010219042493706256 0.0085785733127012494 -0.0037265737141881673 -0.011391178388278802 0.013007117169243949 -0.0068206318443821334 0.011823968541237616 -0.01283073514699936 -0.012073515240252942 -0.0065458525512000964 -0.0037404224087920373 0.0013757761729800183 0.017912096298974136 0.0071193134384368783 -0.0059164530464581085
leaf_weight=78 906 743 281 26 33 48 136 75 61 205 92 45 27 97 36 565 41 70 143 35 31 31 20 323 559 79 184 29 67 77
leaf_count=78 906 743 281 26 33 48 136 75 61 205 92 45 27 97 36 565 41 70 143 35 31 31 20 323 559 79 184 29 67 77
internal_value=0 0.00778135 -0.00438652 -0.00506519 -0.00670048 0.000205553 0.00545738 0.0109428 0.000175502 0.00126048 0.00416711 0.0014665 -0.0021923 -0.00348099 0.00173355 -0.00834395 -0.00563655 0.00384607 -0.00701112 0.00283059 0.00368259 0.0023731 0.00028017 -0.00921398 -0.00839225 0.00173465 0.00349291 0.00977602 0.00182263 -0.00162279
internal_weight=0 1825 3318 3104 2369 735 214 1012 457 687 373 281 314 287 396 1912 465 813 424 360 236 106 190 1447 1124 325 246 62 170 103
internal_count=5143 1825 3318 3104 2369 735 214 1012 457 687 373 281 314 287 396 1912 465 813 424 360 236 106 190 1447 1124 325 246 62 170 103
is_linear=0
shrinkage=0.05


Tree=15
num_leaves=31
num_cat=0
split_feature=15 18 0 17 1 10 17 8 6 15 18 6 19 14 15 18 17 4 17 19 19 19 17 11 18 18 18 6 15 1
split_gain=40.2331 26.8384 7.87383 6.46368 5.73733 5.53565 3.25103 3.12462 3.04253 2.97185 2.96768 2.23053 2.39813 1.82977 1.80108 1.69436 2.09097 1.50709 1.5433 1.98591 1.68389 1.87462 1.45434 1.23774 1.28855 1.28908 1.23626 1.70135 1.22794 1.24015
threshold=-0.33160123991773044 -0.26203369204198335 1.0000000180025095e-35 1.8414541385569179 1.0000000180025095e-35 1.0000000180025095e-35 0.71476734963114674 1.0000000180025095e-35 1.0000000180025095e-35 0.29819193218763768 -0.15356083788556063 1.0000000180025095e-35 0.60850225023717253 5.5000000000000009 0.53077742020736596 -0.26203369204198335 0.98603758093823768 1.0000000180025095e-35 0.35362845273765731 -1.6891433508154479 -1.4106408537181605 -0.78401023524926416 1.2548114604234846 1.0000000180025095e-35 0.81740349078290631 0.21947995323774674 0.38351207415721528 1.0000000180025095e-35 0.11922193004258698 1.0000000180025095e-35
decision_type=2 2 2 2 2 2 2 2 2 2 2 2 2 2 2 2 2 2 2 2 2 2 2 2 2 2 2 2 2 2
left_child=1 2 4 9 11 -6 7 26 -9 10 15 12 13 17 -5 16 -2 -1 19 -19 -21 -22 -18 24 25 -12 27 -3 29 -17
right_child=3 6 -4 14 5 -7 -8 8 -10 -11 23 -13 -14 -15 -16 28 22 18 -20 20 21 -23 -24 -25 -26 -27 -28 -29 -30 -31
leaf_value=0.0059410700324884396 -0.0063928119910573499 -0.0087105893458311375 0.010422461479902268 0.010723267085310344 0.011096918946533113 -0.0021062451509796846 0.0039030189812183386 -0.0074998205182728941 0.0082005442844496831 -0.0092653432944146807 -0.0075984853251678183 0.004378204192021634 -0.0065149472138592013 -0.00852560175628197 -0.0047181458427355844 0.0011595153113206228 0.011882711587281063 0.0079311958065739398 0.010650567529779493 -0.014692869266638389 0.0065615140555197737 -0.0039897573845727105 -0.004242903766808687 -0.012628609214037185 -0.011983287268701723 0.0021913055788006699 -0.010284170707066855 -0.0022267915043734051 0.011570583035548528 -0.011309176489062933
leaf_weight=194 309 208 664 69 418 98 100 54 72 739 82 702 107 41 26 150 29 54 33 26 57 161 27 126 68 57 210 197 24 23
leaf_count=194 309 208 664 69 418 98 100 54 72 739 82 702 107 41 26 150 29 54 33 26 57 161 27 126 68 57 210 197 24 23
internal_value=0 0.00318817 0.00573833 -0.00618156 0.00409355 0.00858934 -0.00455934 -0.00570136 0.00147182 -0.0069187 -0.00498108 0.00240641 0.000349647 0.00164737 0.0064972 -0.00276482 -0.00478175 0.00244183 0.000390919 -0.000745217 -0.00266541 -0.00123094 0.00410786 -0.00872144 -0.00634316 -0.00358397 -0.00717099 -0.00555674 0.000972133 -0.000498172
internal_weight=0 3396 2555 1729 1891 516 841 741 126 1634 895 1375 673 566 95 562 365 525 331 298 244 218 56 333 207 139 615 405 197 173
internal_count=5125 3396 2555 1729 1891 516 841 741 126 1634 895 1375 673 566 95 562 365 525 331 298 244 218 56 333 207 139 615 405 197 173
is_linear=0
shrinkage=0.05


Tree=16
num_leaves=31
num_cat=0
split_feature=2 15 17 19 16 12 17 6 6 12 17 8 18 14 18 18 10 16 4 16 17 6 19 19 19 14 15 18 19 19
split_gain=62.1818 7.82286 7.40974 7.11265 9.88267 6.35951 4.62242 3.12217 2.51909 2.30754 2.03038 1.99111 2.96567 1.88084 1.87745 1.76078 1.66722 1.66118 1.6291 2.3613 1.20494 1.11972 1.07982 1.41063 1.85125 1.05259 1.04445 1.24755 1.89192 1.00302
threshold=1.0000000180025095e-35 0.18567492661965221 1.0143295682524742 -1.2713896051695168 0.029529093902209362 1.0000000180025095e-35 0.19386193613961591 1.0000000180025095e-35 1.0000000180025095e-35 1.0000000180025095e-35 2.305775577419976 1.0000000180025095e-35 0.76404895682791785 5.5000000000000009 -0.1628207156794016 0.38351207415721528 1.0000000180025095e-35 1.4011673422311086 1.0000000180025095e-35 -0.2744454563430459 1.2098771276302853 1.0000000180025095e-35 -0.5055077381519768 -1.1321383566208731 -1.6891433508154479 1.0000000180025095e-35 1.2360853611503084 -0.19236413530737037 0.95663037160878162 1.0958816201574253
decision_type=2 2 2 2 2 2 2 2 2 2 2 2 2 2 2 2 2 2 2 2 2 2 2 2 2 2 2 2 2 2
left_child=1 2 3 9 6 16 21 15 13 -1 14 12 29 22 20 17 -2 -6 -8 -20 -4 -5 23 24 -7 -25 27 28 -3 -9
right_child=5 26 10 4 7 8 18 11 -10 -11 -12 -13 -14 -15 -16 -17 -18 -19 19 -21 -22 -23 -24 25 -26 -27 -28 -29 -30 -31
leaf_value=0.012616420094517695 0.010703757109220675 -0.0070039562790682828 0.0098532589618116617 -0.010432889386273847 -0.003876988848914271 0.0054216280275461628 0.0043754026471149359 0.0045929510485042228 0.0068707932089789635 0.0014312105213137841 0.011748492864914882 0.0099582718706679087 -0.012778177157495962 -0.012852856720035728 -0.0085466969193834248 -0.010407751053571702 0.0039629489183425903 0.0053692874131780685 -0.0081919963968296854 0.0035824171069896585 0.00093927727912061949 -0.0070813513323058925 -0.00048842297233257098 0.0056289871585996527 -0.010517080128192902 0.016816553694230539 -0.010439687730844863 -0.011440965128049516 0.0025154964818108467 -0.0037923318702121119
leaf_weight=69 911 330 64 505 184 49 84 209 418 139 81 87 33 22 33 70 102 66 120 66 93 492 194 95 29 27 334 114 62 43
leaf_count=69 911 330 64 505 184 49 84 209 418 139 81 87 33 22 33 70 102 66 120 66 93 492 194 95 29 27 334 114 62 43
internal_value=0 -0.00410834 -0.0026746 -0.00364939 -0.00458279 0.0073629 -0.00720734 0.000222559 0.00412942 0.00514169 0.0051201 0.00333749 0.00131641 0.00137488 0.00229432 -0.00339855 0.010025 -0.00143597 -0.00140395 -0.00401398 0.004573 -0.00877897 0.00216932 0.00474733 -0.000504302 0.00810492 -0.00826961 -0.00683718 -0.00549833 0.00316213
internal_weight=0 3278 2438 2167 1959 1847 1267 692 834 208 271 372 285 416 190 320 1013 250 270 186 157 997 394 200 78 122 840 506 392 252
internal_count=5125 3278 2438 2167 1959 1847 1267 692 834 208 271 372 285 416 190 320 1013 250 270 186 157 997 394 200 78 122 840 506 392 252
is_linear=0
shrinkage=0.05


Tree=17
num_leaves=31
num_cat=0
split_feature=2 15 17 19 16 12 17 6 6 12 17 18 14 18 18 9 10 16 19 16 19 16 17 16 16 6 7 15 17 16
split_gain=56.119 7.06013 6.68729 6.41917 8.91911 5.73946 4.17173 2.81775 2.27348 2.08255 1.83241 1.8031 1.74751 1.70045 1.5891 1.56225 1.50467 1.49921 1.3557 1.33023 1.19416 1.11853 1.04701 1.25767 1.02577 1.01055 1.01099 0.990058 1.66004 1.58516
threshold=1.0000000180025095e-35 0.18567492661965221 1.0143295682524742 -1.2713896051695168 0.029529093902209362 1.0000000180025095e-35 0.19386193613961591 1.0000000180025095e-35 1.0000000180025095e-35 1.0000000180025095e-35 2.305775577419976 2.7125918125890238 2.5000000000000004 0.1564245949273059 0.38351207415721528 1.0000000180025095e-35 1.0000000180025095e-35 1.4011673422311086 -0.78401023524926416 -0.26693991189254579 -1.0625127323465513 2.0031745533649739 1.4653371307323619 -0.2807000767184627 -0.2331649618652952 1.0000000180025095e-35 1.0000000180025095e-35 3.4509335311563576 2.0852644998237206 0.97428950160891348
decision_type=2 2 2 2 2 2 2 2 2 2 2 2 2 2 2 2 2 2 2 2 2 2 2 2 2 2 2 2 2 2
left_child=1 2 3 9 6 16 25 14 12 -1 13 15 18 22 17 21 -2 -6 20 -8 -7 -9 -4 -24 -21 -5 -27 28 29 -3
right_child=5 27 10 4 7 8 19 11 -10 -11 -12 -13 -14 -15 -16 -17 -18 -19 -20 24 -22 -23 23 -25 -26 26 -28 -29 -30 -31
leaf_value=0.011985599335984908 0.010168569225053234 -0.008178148317924688 0.0069657119518181064 -0.0099112448819202951 -0.0036831393756944202 0.002378326444886625 -0.0036718838355120492 0.0033541071670226369 0.0065272536610016989 0.0013596503854655534 0.011161068210631241 -0.010084783968826136 -0.006745070039198317 -0.010260500386357308 -0.0098873636126518265 -0.0088111467659473426 0.0037648011802458299 0.0051008228099707403 0.00045304195334513987 0.013799410387873651 0.012474479057170728 0.010312908490498861 -0.0080712649971246726 0.006438977643847466 0.00080224100559476833 -0.0073250842078224484 0.0018660977017134429 -0.013183823454229138 0.0048728890992977003 0.0048871827001372974
leaf_weight=69 911 710 106 505 184 64 187 251 418 139 81 24 58 24 70 22 102 66 240 20 54 75 32 28 63 460 32 79 27 24
leaf_count=69 911 710 106 505 184 64 187 251 418 139 81 24 58 24 70 22 102 66 240 20 54 75 32 28 63 460 32 79 27 24
internal_value=0 -0.00390292 -0.00254087 -0.00346692 -0.00435365 0.00699476 -0.00684697 0.000211431 0.00392295 0.0048846 0.0048641 0.00317062 0.00130613 0.0021796 -0.00322862 0.00408478 0.00952377 -0.00136417 0.00261052 -0.00133375 0.0069986 0.00495506 0.00397817 -0.00129982 0.00393409 -0.00834002 -0.00672728 -0.00785613 -0.00730306 -0.00775094
internal_weight=0 3278 2438 2167 1959 1847 1267 692 834 208 271 372 416 190 320 348 1013 250 358 270 118 326 166 60 83 997 492 840 761 734
internal_count=5125 3278 2438 2167 1959 1847 1267 692 834 208 271 372 416 190 320 348 1013 250 358 270 118 326 166 60 83 997 492 840 761 734
is_linear=0
shrinkage=0.05


Tree=18
num_leaves=31
num_cat=0
split_feature=15 18 16 0 17 1 10 16 18 17 16 19 17 11 16 17 16 15 15 6 14 10 19 19 3 17 6 19 19 6
split_gain=29.6584 20.162 6.97099 5.9435 5.07634 4.12329 4.21603 2.87194 3.13416 2.58106 2.47474 1.9479 1.58637 2.56754 1.52643 1.5199 1.39909 1.39036 1.29869 1.12329 1.59525 1.18792 1.16629 1.94476 1.08733 1.02262 0.987169 1.00375 0.976242 1.09829
threshold=-0.33160123991773044 -0.26203369204198335 1.2873332513985234 1.0000000180025095e-35 1.8414541385569179 1.0000000180025095e-35 1.0000000180025095e-35 0.018896239264000841 0.81740349078290631 0.71476734963114674 -0.25818344336696231 1.0958816201574253 0.80630024976544135 1.0000000180025095e-35 0.057987616610355695 0.93111784085766103 -0.24817605076629548 0.53077742020736596 0.31329488595515248 1.0000000180025095e-35 5.5000000000000009 1.0000000180025095e-35 -1.8283945993640915 -1.1321383566208731 1.0000000180025095e-35 1.2548114604234846 1.0000000180025095e-35 0.26037412886556327 1.9313891114492874 1.0000000180025095e-35
decision_type=2 2 2 2 2 2 2 2 2 2 2 2 2 2 2 2 2 2 2 2 2 2 2 2 2 2 2 2 2 2
left_child=1 3 9 5 7 11 -7 15 -9 14 -5 12 13 19 -3 -2 -15 -6 25 20 -1 22 -21 -24 -25 -17 -4 -28 29 -13
right_child=4 2 26 10 17 6 -8 8 -10 -11 -12 28 -14 16 -16 18 -18 -19 -20 21 -22 -23 23 24 -26 -27 27 -29 -30 -31
leaf_value=0.0022117744062394532 -0.0076048905156201052 -0.0088544992655163399 0.0010683063480813625 0.0098402699007260012 0.0096416777026826061 0.0095182601647656514 -0.0020042068191937039 0.00020642635123483069 -0.012347793492178122 0.0020631629713746004 -0.0023038773404227362 -0.013085363099449561 0.0099588230042390435 -0.0087250259915987657 -0.003439723965810969 0.0061677197412568704 0.0011781680671607746 -0.0039253427432133598 -0.010874373645618045 0.012183463104345182 -0.0090003271313274617 -0.0071838635951280601 -0.0011994789605555328 0.0079308286837236151 0.0011815806038868734 -0.0045341249646210086 0.015529054089596398 0.0046007709300264401 0.0026077808013984134 -0.0019023914463244954
leaf_weight=474 1165 423 59 619 69 418 98 290 60 86 45 38 71 75 188 49 68 26 29 54 34 20 115 254 78 41 38 47 42 52
leaf_count=474 1165 423 59 619 69 418 98 290 60 86 45 38 71 75 188 49 68 26 29 54 34 20 115 254 78 41 38 47 42 52
internal_value=0 0.00273727 -0.00397779 0.00494759 -0.00530742 0.00351859 0.00732988 -0.00596067 -0.00194573 -0.0060469 0.00901725 0.00208831 0.00270158 0.00226194 -0.00718841 -0.00705509 -0.00401581 0.0059286 -0.00167259 0.00313436 0.00146136 0.00476561 0.00524264 0.00440415 0.00634516 0.00129243 0.00603729 0.00948636 -0.00368668 -0.00662409
internal_weight=0 3396 841 2555 1729 1891 516 1634 350 697 664 1375 1243 1172 611 1284 143 95 119 1029 508 521 501 447 332 90 144 85 132 90
internal_count=5125 3396 841 2555 1729 1891 516 1634 350 697 664 1375 1243 1172 611 1284 143 95 119 1029 508 521 501 447 332 90 144 85 132 90
is_linear=0
shrinkage=0.05


Tree=19
num_leaves=31
num_cat=0
split_feature=2 19 16 17 12 18 17 6 8 18 6 12 16 14 1 19 16 6 19 16 10 19 7 16 18 18 12 18 18 19
split_gain=46.1152 5.67172 7.15652 10.6076 4.64457 3.04893 2.43263 2.27824 2.58215 2.03991 1.87604 1.75754 1.7531 1.50145 1.35619 1.89608 1.47569 1.23952 1.20436 1.18465 1.18137 1.12816 1.07998 1.31203 1.33613 0.951583 0.920772 0.878826 0.848022 1.40728
threshold=1.0000000180025095e-35 -1.2713896051695168 0.057987616610355695 0.46180369835091445 1.0000000180025095e-35 1.5974379582736045 2.8632941509652245 1.0000000180025095e-35 1.0000000180025095e-35 -0.038032838743354343 1.0000000180025095e-35 1.0000000180025095e-35 4.016849583230405 2.5000000000000004 1.0000000180025095e-35 1.3047584929803908 -0.27069268411779585 1.0000000180025095e-35 -0.5055077381519768 -0.23691773409054528 1.0000000180025095e-35 0.67812787451149426 1.0000000180025095e-35 -0.22440849333971172 -0.1747262728429114 0.42496105094869391 1.0000000180025095e-35 -0.26115179891876039 -0.17825384533580321 1.3743841172547127
decision_type=2 2 2 2 2 2 2 2 2 2 2 2 2 2 2 2 2 2 2 2 2 2 2 2 2 2 2 2 2 2
left_child=1 11 3 17 20 7 9 12 25 14 13 -1 28 18 15 16 27 -3 -6 -18 -2 -16 23 -19 26 -9 -25 -5 29 -4
right_child=4 2 5 6 10 -7 -8 8 -10 -11 -12 -13 -14 -15 21 -17 19 22 -20 -21 -22 -23 -24 24 -26 -27 -28 -29 -30 -31
leaf_value=0.010975557230952858 0.0091870183266216775 -0.0087537677543984959 0.00075556394167062722 0.0038981370756338385 0.0054419852749646065 -0.0086657354956144808 0.0097995690883152069 0.0023758117042293621 0.011406206108984494 -0.011176322755359468 0.0059430573902061684 0.0012139252514290298 0.010724181950092317 -0.0062626786786934424 -0.0057358349797626343 -0.011289058496122776 0.019071826209192691 -0.0073656179734444939 -0.00036393958617021694 0.0054029908834719196 0.0035127729469654613 0.0039602305367588998 0.0027983958296703571 -0.00084239678191287172 -0.0073587462306022649 -0.0074576952943095458 0.011655699983239174 -0.0033288339322263545 -0.0065091788369630067 -0.011193074799817184
leaf_weight=69 911 885 164 116 171 91 63 277 84 42 418 139 25 58 120 23 23 659 187 51 102 40 33 56 64 27 20 66 112 29
leaf_count=69 911 885 164 116 171 91 63 277 84 42 418 139 25 58 120 23 23 659 187 51 102 40 33 56 64 27 20 66 112 29
internal_value=0 -0.00353809 -0.00407945 -0.00552348 0.00634064 -4.36696e-05 0.00056087 0.0010491 0.00364656 -0.000649188 0.00357732 0.00445216 -0.00200488 0.00120021 0.000357964 0.0024625 0.00369799 -0.00745119 0.00240928 0.00965141 0.00861567 -0.00331182 -0.00606564 -0.00643174 -0.00203586 0.00150244 0.00244658 0.00127737 -0.00304824 -0.00103983
internal_weight=0 3278 3070 2261 1847 809 544 718 388 481 834 208 330 416 439 279 256 1717 358 74 1013 160 832 799 140 304 76 182 305 193
internal_count=5125 3278 3070 2261 1847 809 544 718 388 481 834 208 330 416 439 279 256 1717 358 74 1013 160 832 799 140 304 76 182 305 193
is_linear=0
shrinkage=0.05


end of trees

feature_importances:
FoodCourt=99
VRDeck=87
Age=77
ShoppingMall=74
Side_S=46
RoomService=41
Deck_G=31
Deck_E=25
HomePlanet_Europa=23
GroupSize=19
CryoSleep_True=17
HomePlanet_Mars=14
Destination_TRAPPIST-1e=13
Deck_C=11
Deck_F=11
Destination_PSO_J318.5-22=5
Deck_B=5
Deck_D=2

parameters:
[boosting: gbdt]
[objective: regression]
[metric: l1,l2]
[tree_learner: serial]
[device_type: cpu]
[data: ]
[valid: ]
[num_iterations: 20]
[learning_rate: 0.05]
[num_leaves: 31]
[num_threads: 0]
[deterministic: 0]
[force_col_wise: 0]
[force_row_wise: 0]
[histogram_pool_size: -1]
[max_depth: -1]
[min_data_in_leaf: 20]
[min_sum_hessian_in_leaf: 0.001]
[bagging_fraction: 0.8]
[pos_bagging_fraction: 1]
[neg_bagging_fraction: 1]
[bagging_freq: 5]
[bagging_seed: 3]
[feature_fraction: 0.9]
[feature_fraction_bynode: 1]
[feature_fraction_seed: 2]
[extra_trees: 0]
[extra_seed: 6]
[early_stopping_round: 0]
[first_metric_only: 0]
[max_delta_step: 0]
[lambda_l1: 0]
[lambda_l2: 0]
[linear_lambda: 0]
[min_gain_to_split: 0]
[drop_rate: 0.1]
[max_drop: 50]
[skip_drop: 0.5]
[xgboost_dart_mode: 0]
[uniform_drop: 0]
[drop_seed: 4]
[top_rate: 0.2]
[other_rate: 0.1]
[min_data_per_group: 100]
[max_cat_threshold: 32]
[cat_l2: 10]
[cat_smooth: 10]
[max_cat_to_onehot: 4]
[top_k: 20]
[monotone_constraints: ]
[monotone_constraints_method: basic]
[monotone_penalty: 0]
[feature_contri: ]
[forcedsplits_filename: ]
[refit_decay_rate: 0.9]
[cegb_tradeoff: 1]
[cegb_penalty_split: 0]
[cegb_penalty_feature_lazy: ]
[cegb_penalty_feature_coupled: ]
[path_smooth: 0]
[interaction_constraints: ]
[verbosity: 0]
[saved_feature_importance_type: 0]
[linear_tree: 0]
[max_bin: 255]
[max_bin_by_feature: ]
[min_data_in_bin: 3]
[bin_construct_sample_cnt: 200000]
[data_random_seed: 1]
[is_enable_sparse: 1]
[enable_bundle: 1]
[use_missing: 1]
[zero_as_missing: 0]
[feature_pre_filter: 1]
[pre_partition: 0]
[two_round: 0]
[header: 0]
[label_column: ]
[weight_column: ]
[group_column: ]
[ignore_column: ]
[categorical_feature: ]
[forcedbins_filename: ]
[precise_float_parser: 0]
[objective_seed: 5]
[num_class: 1]
[is_unbalance: 0]
[scale_pos_weight: 1]
[sigmoid: 1]
[boost_from_average: 1]
[reg_sqrt: 0]
[alpha: 0.9]
[fair_c: 1]
[poisson_max_delta_step: 0.7]
[tweedie_variance_power: 1.5]
[lambdarank_truncation_level: 30]
[lambdarank_norm: 1]
[label_gain: ]
[eval_at: ]
[multi_error_top_k: 1]
[auc_mu_weights: ]
[num_machines: 1]
[local_listen_port: 12400]
[time_out: 120]
[machine_list_filename: ]
[machines: ]
[gpu_platform_id: -1]
[gpu_device_id: -1]
[gpu_use_dp: 0]
[num_gpu: 1]

end of parameters

pandas_categorical:[]
